tree
version=v3
num_class=1
num_tree_per_iteration=1
label_index=0
max_feature_idx=6
objective=regression
feature_names=f1 f2 f3 f4 f5 f6 f7
feature_infos=[0.074999999999999997:0.81499999999999995] [0.055:0.65000000000000002] [0:1.1299999999999999] [0.002:2.7795000000000001] [0.001:1.4880000000000002] [0.00050000000000000001:0.76000000000000001] [0.0015:1.0049999999999999]
tree_sizes=558 579 578 579 579 580 580 581 581 574 580 581 585 577 577 579 584 583 578 587 571 583 584 591 571 585 576 588 577 584 591 585 590 583 594 583 591 586 582 588 587 583 583 589 594 588 593 588 585 591 589 588 589 590 589 578 589 593 593 589 589 588 587 585 593 593 590 589 583 584 577 587 589 589 587 581 594 586 594 589 580 586 580 586 592 599 582 586 591 591 593 572 592 588 586 587 587 591 592 589

Tree=0
num_leaves=5
num_cat=0
split_feature=6 6 6 4
split_gain=119.364 25.3078 18.7556 5.01555
threshold=0.13975000000000004 0.038750000000000007 0.29475000000000001 0.44025000000000009
decision_type=2 2 2 2
left_child=1 -1 -2 -4
right_child=2 -3 3 -5
leaf_value=2.1813917481123637 2.2522205961642783 2.2255062071832161 2.283934860325048 2.2666683643367458
leaf_weight=158 1305 735 205 938
leaf_count=158 1305 735 205 938
internal_value=2.249 2.2177 2.26041 2.26977
internal_weight=0 893 2448 1143
internal_count=3341 893 2448 1143
is_linear=0
shrinkage=1


Tree=1
num_leaves=5
num_cat=0
split_feature=6 1 6 6
split_gain=96.7546 23.4627 13.3407 4.55152
threshold=0.15475000000000003 0.22250000000000003 0.35975000000000007 0.11025000000000001
decision_type=2 2 2 2
left_child=1 -1 -2 -3
right_child=2 3 -4 -5
leaf_value=-0.060432126152506274 0.0066392016326423083 -0.024945890594949824 0.023655281179475861 -0.010055102336713497
leaf_weight=163 1686 518 634 340
leaf_count=163 1686 518 634 340
internal_value=0 -0.0256524 0.0112893 -0.0190451
internal_weight=0 1021 2320 858
internal_count=3341 1021 2320 858
is_linear=0
shrinkage=0.1


Tree=2
num_leaves=5
num_cat=0
split_feature=6 6 6 6
split_gain=78.4998 17.431 13.0902 5.47679
threshold=0.14350000000000004 0.038750000000000007 0.25925000000000004 0.50675000000000014
decision_type=2 2 2 2
left_child=1 -1 -2 -4
right_child=2 -3 3 -5
leaf_value=-0.055002958275660686 0.00037277947020680812 -0.018531164689011347 0.01358901391274977 0.035720195786523648
leaf_weight=158 953 768 1340 122
leaf_count=158 953 768 1340 122
internal_value=0 -0.0247542 0.00949168 0.0154358
internal_weight=0 926 2415 1462
internal_count=3341 926 2415 1462
is_linear=0
shrinkage=0.1


Tree=3
num_leaves=5
num_cat=0
split_feature=6 6 0 6
split_gain=64.5095 14.3681 12.2547 4.85694
threshold=0.11925000000000001 0.24925000000000003 0.26250000000000007 0.40925000000000006
decision_type=2 2 2 2
left_child=2 -2 -1 -3
right_child=1 3 -4 -5
leaf_value=-0.060032566035947491 -0.0016800970849032441 0.010271296560932779 -0.021203416296318823 0.023191973557322738
leaf_weight=93 1044 1172 645 387
leaf_count=93 1044 1172 645 387
internal_value=0 0.00739886 -0.0260965 0.0134787
internal_weight=0 2603 738 1559
internal_count=3341 2603 738 1559
is_linear=0
shrinkage=0.1


Tree=4
num_leaves=5
num_cat=0
split_feature=6 6 6 0
split_gain=52.7577 14.7496 6.81745 4.49351
threshold=0.16725000000000004 0.059500000000000004 0.35975000000000007 0.22750000000000004
decision_type=2 2 2 2
left_child=1 3 -2 -1
right_child=2 -3 -4 -5
leaf_value=-0.063524926964331555 0.0054217749224211636 -0.011086027091756623 0.017689162569138155 -0.031402624147116309
leaf_weight=54 1587 841 634 225
leaf_count=54 1587 841 634 225
internal_value=0 -0.0176958 0.00892359 -0.0376198
internal_weight=0 1120 2221 279
internal_count=3341 1120 2221 279
is_linear=0
shrinkage=0.1


Tree=5
num_leaves=5
num_cat=0
split_feature=6 6 6 4
split_gain=43.5126 10.4393 7.81302 4.84084
threshold=0.11325000000000002 0.24925000000000003 0.023750000000000004 0.41375000000000001
decision_type=2 2 2 2
left_child=2 -2 -1 -3
right_child=1 3 -4 -5
leaf_value=-0.05210537220387218 -0.0016739068947465381 0.021351853242589976 -0.018512161547475339 0.0080639643020272173
leaf_weight=78 1088 355 616 1204
leaf_count=78 1088 355 616 1204
internal_value=0 0.00584349 -0.0222878 0.0110898
internal_weight=0 2647 694 1559
internal_count=3341 2647 694 1559
is_linear=0
shrinkage=0.1


Tree=6
num_leaves=5
num_cat=0
split_feature=6 6 6 4
split_gain=35.3723 9.29136 6.07219 3.37323
threshold=0.15475000000000003 0.059500000000000004 0.40925000000000006 0.58725000000000016
decision_type=2 2 2 2
left_child=1 -1 -2 -4
right_child=2 -3 3 -5
leaf_value=-0.031067478318455029 0.0045368198157214419 -0.0096608466756181177 0.033169662667045352 0.012413699870004499
leaf_weight=279 1933 742 109 278
leaf_count=279 1933 742 109 278
internal_value=0 -0.0155105 0.00682594 0.0182597
internal_weight=0 1021 2320 387
internal_count=3341 1021 2320 387
is_linear=0
shrinkage=0.1


Tree=7
num_leaves=5
num_cat=0
split_feature=6 6 6 5
split_gain=29.2869 9.67318 4.1925 3.48418
threshold=0.18975000000000003 0.067750000000000019 0.52075000000000016 0.0097500000000000017
decision_type=2 2 2 2
left_child=1 3 -2 -1
right_child=2 -3 -4 -5
leaf_value=-0.052696734892074451 0.0064829569516319744 -0.0065345861409839834 0.027286463402503847 -0.022259678525268101
leaf_weight=43 1927 969 102 300
leaf_count=43 1927 969 102 300
internal_value=0 -0.0116432 0.00752877 -0.0260754
internal_weight=0 1312 2029 343
internal_count=3341 1312 2029 343
is_linear=0
shrinkage=0.1


Tree=8
num_leaves=5
num_cat=0
split_feature=2 6 4 6
split_gain=24.3807 7.32058 5.28029 4.24785
threshold=0.10250000000000002 0.28925000000000006 0.44375000000000003 0.023750000000000004
decision_type=2 2 2 2
left_child=3 -2 -3 -1
right_child=1 2 -4 -5
leaf_value=-0.039884180308152467 -0.00049726923490599347 0.023660956207449482 0.0066983611183921519 -0.014892326345888236
leaf_weight=78 1547 227 958 531
leaf_count=78 1547 227 958 531
internal_value=0 0.00403323 0.00994774 -0.0180933
internal_weight=0 2732 1185 609
internal_count=3341 2732 1185 609
is_linear=0
shrinkage=0.1


Tree=9
num_leaves=5
num_cat=0
split_feature=6 6 0 4
split_gain=20.0862 5.6271 3.76874 3.34679
threshold=0.11025000000000001 0.31925000000000009 0.26250000000000007 0.44625000000000009
decision_type=2 2 2 2
left_child=2 -2 -1 -3
right_child=1 3 -4 -5
leaf_value=-0.034029827042612974 0.00056490509711764215 0.024116633161392117 -0.01236567199325227 0.0076182927701691598
leaf_weight=93 1735 146 588 779
leaf_count=93 1735 146 588 779
internal_value=0 0.00392323 -0.0153242 0.0102224
internal_weight=0 2660 681 925
internal_count=3341 2660 681 925
is_linear=0
shrinkage=0.1


Tree=10
num_leaves=5
num_cat=0
split_feature=6 1 6 4
split_gain=16.9233 5.4967 3.24668 3.79178
threshold=0.18975000000000003 0.23750000000000002 0.54625000000000012 0.3312500000000001
decision_type=2 2 2 2
left_child=1 -1 3 -2
right_child=2 -3 -4 -5
leaf_value=-0.023636250244453552 0.014191061138278907 -0.00601717269159752 0.025729090691759039 0.0028262130873350079
leaf_weight=211 360 1101 78 1591
leaf_count=211 360 1101 78 1591
internal_value=0 -0.00885073 0.00572309 0.00492326
internal_weight=0 1312 2029 1951
internal_count=3341 1312 2029 1951
is_linear=0
shrinkage=0.1


Tree=11
num_leaves=5
num_cat=0
split_feature=2 6 4 6
split_gain=13.8466 4.66675 3.95379 3.61428
threshold=0.10250000000000002 0.25925000000000004 0.41375000000000001 0.38950000000000007
decision_type=2 2 2 2
left_child=-1 -2 -3 -4
right_child=1 2 3 -5
leaf_value=-0.013635332033088605 -0.0013851633452344322 0.01735180350919736 -0.000260303473436303 0.011076218472356708
leaf_weight=609 1273 290 698 471
leaf_count=609 1273 290 698 471
internal_value=0 0.0030395 0.00690009 0.00430728
internal_weight=0 2732 1459 1169
internal_count=3341 2732 1459 1169
is_linear=0
shrinkage=0.1


Tree=12
num_leaves=5
num_cat=0
split_feature=6 1 4 6
split_gain=11.4357 4.25172 3.02361 3.95688
threshold=0.19425000000000001 0.22250000000000003 0.3312500000000001 0.32475000000000004
decision_type=2 2 2 2
left_child=1 -1 -2 -4
right_child=2 -3 3 -5
leaf_value=-0.022252835229359155 0.013510538606314329 -0.0050281224374598109 -0.0019611360198060366 0.0078106214581886244
leaf_weight=163 333 1186 805 854
leaf_count=163 333 1186 805 854
internal_value=0 -0.00710939 0.00481454 0.00306905
internal_weight=0 1349 1992 1659
internal_count=3341 1349 1992 1659
is_linear=0
shrinkage=0.1


Tree=13
num_leaves=5
num_cat=0
split_feature=6 6 4 5
split_gain=9.6896 3.27853 2.57122 2.26188
threshold=0.094750000000000015 0.40925000000000006 0.58725000000000016 0.0097500000000000017
decision_type=2 2 2 2
left_child=3 -2 -3 -1
right_child=1 2 -4 -5
leaf_value=-0.034083219634932146 0.0010278986855095458 0.023964365297467066 0.0058430610981722968 -0.010206256549965162
leaf_weight=43 2398 109 278 513
leaf_count=43 2398 109 278 513
internal_value=0 0.00240624 0.010947 -0.0120529
internal_weight=0 2785 387 556
internal_count=3341 2785 387 556
is_linear=0
shrinkage=0.1


Tree=14
num_leaves=5
num_cat=0
split_feature=6 0 6 4
split_gain=8.09637 2.65884 2.28015 2.08995
threshold=0.16725000000000004 0.22750000000000004 0.50675000000000014 0.78350000000000009
decision_type=2 2 2 2
left_child=1 -1 -2 -4
right_child=2 -3 3 -5
leaf_value=-0.028372505442662673 0.0027232904787933641 -0.0058249720049685337 0.027693079598248006 0.0010798984244465828
leaf_weight=55 2099 1065 72 50
leaf_count=55 2099 1065 72 50
internal_value=0 -0.00693222 0.00349576 0.016786
internal_weight=0 1120 2221 122
internal_count=3341 1120 2221 122
is_linear=0
shrinkage=0.1


Tree=15
num_leaves=5
num_cat=0
split_feature=2 6 5 4
split_gain=6.83814 2.09551 1.80652 1.7948
threshold=0.11250000000000002 0.44025000000000009 0.0097500000000000017 0.77450000000000008
decision_type=2 2 2 2
left_child=2 -2 -1 -3
right_child=1 3 -4 -5
leaf_value=-0.027942518462957602 0.0015588334848149659 0.016999139140408511 -0.0068789450821771514 0.0001698227319866419
leaf_weight=43 2258 173 767 100
leaf_count=43 2258 173 767 100
internal_value=0 0.00255934 -0.00799713 0.0108346
internal_weight=0 2531 810 273
internal_count=3341 2531 810 273
is_linear=0
shrinkage=0.1


Tree=16
num_leaves=5
num_cat=0
split_feature=1 6 4 6
split_gain=5.71289 2.82396 3.57513 2.08761
threshold=0.27750000000000008 0.24925000000000003 0.41375000000000001 0.38950000000000007
decision_type=2 2 2 2
left_child=-1 -2 -3 -4
right_child=1 2 3 -5
leaf_value=-0.011374753395525308 -0.0017682758484444229 0.013262677202290608 -0.001507000708482438 0.0070254909275040316
leaf_weight=390 1393 354 733 471
leaf_count=390 1393 354 733 471
internal_value=0 0.00150327 0.00442835 0.00183088
internal_weight=0 2951 1558 1204
internal_count=3341 2951 1558 1204
is_linear=0
shrinkage=0.1


Tree=17
num_leaves=5
num_cat=0
split_feature=6 4 6 4
split_gain=4.72769 2.68238 2.71715 2.52349
threshold=0.19425000000000001 0.30375000000000002 0.29275000000000001 0.44625000000000009
decision_type=2 2 2 2
left_child=-1 -2 -3 -4
right_child=1 2 3 -5
leaf_value=-0.0045711457788712283 0.012917426674050417 -0.0035933408671764721 0.014929851355163504 0.0024718734705955728
leaf_weight=1349 244 620 197 931
leaf_count=1349 244 620 197 931
internal_value=0 0.00309562 0.00172461 0.0046476
internal_weight=0 1992 1748 1128
internal_count=3341 1992 1748 1128
is_linear=0
shrinkage=0.1


Tree=18
num_leaves=5
num_cat=0
split_feature=6 6 6 4
split_gain=4.23225 1.8566 1.1838 3.16595
threshold=0.082250000000000004 0.54625000000000012 0.25925000000000004 0.44625000000000009
decision_type=2 2 2 2
left_child=-1 2 -2 -4
right_child=1 -3 3 -5
leaf_value=-0.00882942325593126 -0.0010269573281872647 0.01665198740024024 0.010524692128492911 1.2307556986283661e-05
leaf_weight=467 1412 78 405 979
leaf_count=467 1412 78 405 979
internal_value=0 0.0014347 0.00101019 0.00308855
internal_weight=0 2874 2796 1384
internal_count=3341 2874 2796 1384
is_linear=0
shrinkage=0.1


Tree=19
num_leaves=5
num_cat=0
split_feature=6 6 4 4
split_gain=3.55107 1.66366 2.33864 1.38305
threshold=0.067750000000000019 0.31925000000000009 0.55200000000000016 0.39325000000000004
decision_type=2 2 2 2
left_child=-1 3 -3 -2
right_child=1 2 -4 -5
leaf_value=-0.0096385197420726723 0.0010832927073925701 0.010718678599161407 0.00047737125849181962 -0.0047637346428827457
leaf_weight=343 1522 375 550 551
leaf_count=343 1522 375 550 551
internal_value=0 0.00110274 0.00462925 -0.000470838
internal_weight=0 2998 925 2073
internal_count=3341 2998 925 2073
is_linear=0
shrinkage=0.1


Tree=20
num_leaves=5
num_cat=0
split_feature=2 6 0 4
split_gain=2.9938 1.42926 1.18709 1.01202
threshold=0.10250000000000002 0.54625000000000012 0.18250000000000002 0.76375000000000004
decision_type=2 2 2 2
left_child=2 -2 -1 -3
right_child=1 3 -4 -5
leaf_value=-0.029145839488641787 0.0010212094226513253 0.025575966590152283 -0.0054855017524587033 0.0027646904156820198
leaf_weight=22 2654 41 587 37
leaf_count=22 2654 41 587 37
internal_value=0 0.00141332 -0.00634023 0.0147552
internal_weight=0 2732 609 78
internal_count=3341 2732 609 78
is_linear=0
shrinkage=0.1


Tree=21
num_leaves=5
num_cat=0
split_feature=6 4 0 6
split_gain=2.58784 2.50581 1.42484 1.33155
threshold=0.23375000000000004 0.35875000000000007 0.24750000000000003 0.35975000000000007
decision_type=2 2 2 2
left_child=2 -2 -1 -3
right_child=1 3 -4 -5
leaf_value=-0.016199659521838553 0.011919590195810254 -0.001503223079952945 -0.0021794813640720963 0.0046316134138032795
leaf_weight=76 253 824 1568 620
leaf_count=76 253 824 1568 620
internal_value=0 0.00273931 -0.00282762 0.00113085
internal_weight=0 1697 1644 1444
internal_count=3341 1697 1644 1444
is_linear=0
shrinkage=0.1


Tree=22
num_leaves=5
num_cat=0
split_feature=1 6 4 6
split_gain=2.18066 1.13724 1.15261 0.731996
threshold=0.27750000000000008 0.52075000000000016 0.76375000000000004 0.25925000000000004
decision_type=2 2 2 2
left_child=-1 3 -3 -2
right_child=1 2 -4 -5
leaf_value=-0.0070276196730824627 -0.00097350688671518193 0.021325952750716914 2.8733707343538601e-05 0.0022356999618153078
leaf_weight=390 1490 54 48 1359
leaf_count=390 1490 54 48 1359
internal_value=0 0.00092876 0.0113037 0.000557315
internal_weight=0 2951 102 2849
internal_count=3341 2951 102 2849
is_linear=0
shrinkage=0.1


Tree=23
num_leaves=5
num_cat=0
split_feature=2 6 4 4
split_gain=1.8496 1.11841 2.15725 1.24779
threshold=0.077500000000000013 0.28925000000000006 0.42275000000000001 0.39325000000000004
decision_type=2 2 2 2
left_child=-1 3 -3 -2
right_child=1 2 -4 -5
leaf_value=-0.0092507860465594598 0.00030281419961035932 0.013137015554105716 0.0012222907523338248 -0.0063099717775021574
leaf_weight=203 1606 179 1006 347
leaf_count=203 1606 179 1006 347
internal_value=0 0.000598442 0.00302207 -0.000872115
internal_weight=0 3138 1185 1953
internal_count=3341 3138 1185 1953
is_linear=0
shrinkage=0.1


Tree=24
num_leaves=5
num_cat=0
split_feature=2 4 6 4
split_gain=1.59583 2.36038 1.55859 1.6201
threshold=0.12750000000000003 0.28175 0.29275000000000001 0.5667500000000002
decision_type=2 2 2 2
left_child=-1 -2 -3 -4
right_child=1 2 3 -5
leaf_value=-0.0029022591096592486 0.0099982586006350082 -0.0033598424710259687 0.0064319318019556305 -0.001134451562702133
leaf_weight=1209 292 708 562 570
leaf_count=1209 292 708 562 570
internal_value=0 0.00164579 0.000320293 0.002622
internal_weight=0 2132 1840 1132
internal_count=3341 2132 1840 1132
is_linear=0
shrinkage=0.1


Tree=25
num_leaves=5
num_cat=0
split_feature=1 6 4 4
split_gain=1.41569 0.968695 1.13539 0.848379
threshold=0.23750000000000002 0.44025000000000009 0.6422500000000001 0.53075000000000017
decision_type=2 2 2 2
left_child=-1 3 -3 -2
right_child=1 2 -4 -5
leaf_value=-0.0079082583551699261 0.00079637134565164092 0.014913632458594351 0.0014391857506283984 -0.0037003113911413124
leaf_weight=212 2345 97 176 511
leaf_count=212 2345 97 176 511
internal_value=0 0.00053581 0.00622681 -8.18218e-06
internal_weight=0 3129 273 2856
internal_count=3341 3129 273 2856
is_linear=0
shrinkage=0.1


Tree=26
num_leaves=5
num_cat=0
split_feature=6 4 4 2
split_gain=1.35064 2.01013 1.06089 1.64341
threshold=0.19425000000000001 0.28175 0.23325000000000004 0.12250000000000001
decision_type=2 2 2 2
left_child=2 -2 3 -1
right_child=1 -3 -4 -5
leaf_value=-0.0025716179756183222 0.012155844236049288 0.00069366595062286894 -0.0076316168495896668 0.0086469826583744462
leaf_weight=891 167 1825 305 153
leaf_count=891 167 1825 305 153
internal_value=0 0.0016546 -0.00244327 -0.000927513
internal_weight=0 1992 1349 1044
internal_count=3341 1992 1349 1044
is_linear=0
shrinkage=0.1


Tree=27
num_leaves=5
num_cat=0
split_feature=6 4 0 4
split_gain=1.1739 1.75011 0.906136 1.02367
threshold=0.23375000000000004 0.35875000000000007 0.19750000000000004 0.23325000000000004
decision_type=2 2 2 2
left_child=2 -2 -1 -4
right_child=1 -3 3 -5
leaf_value=-0.01830795007673177 0.0095170733684663781 0.00050075177111020544 0.00028168052723902569 -0.0050029472556090693
leaf_weight=33 253 1444 1047 564
leaf_count=33 253 1444 1047 564
internal_value=0 0.00184496 -0.00190444 -0.00156843
internal_weight=0 1697 1644 1611
internal_count=3341 1697 1644 1611
is_linear=0
shrinkage=0.1


Tree=28
num_leaves=5
num_cat=0
split_feature=2 4 3 6
split_gain=1.06733 1.51704 0.916513 0.850638
threshold=0.15750000000000003 0.48975000000000007 1.2077500000000001 0.54625000000000012
decision_type=2 2 2 2
left_child=-1 2 -2 -3
right_child=1 3 -4 -5
leaf_value=-0.0012863328595702744 0.005883703178110951 -0.0011501807061630109 0.021105316890817551 0.01006111510594686
leaf_weight=2201 327 693 45 75
leaf_count=2201 327 693 45 75
internal_value=0 0.00248353 0.00772503 -5.53276e-05
internal_weight=0 1140 372 768
internal_count=3341 1140 372 768
is_linear=0
shrinkage=0.1


Tree=29
num_leaves=5
num_cat=0
split_feature=2 6 4 6
split_gain=1.01378 0.713788 0.574574 0.434312
threshold=0.067500000000000018 0.54625000000000012 0.76375000000000004 0.16725000000000004
decision_type=2 2 2 2
left_child=-1 3 -3 -2
right_child=1 2 -4 -5
leaf_value=-0.0092260924394687877 -0.0016179365218296103 0.017932009937741408 0.00074393100835181574 0.000900291852704791
leaf_weight=115 1007 41 37 2141
leaf_count=115 1007 41 37 2141
internal_value=0 0.00032889 0.00977869 9.47468e-05
internal_weight=0 3226 78 3148
internal_count=3341 3226 78 3148
is_linear=0
shrinkage=0.1


Tree=30
num_leaves=5
num_cat=0
split_feature=2 6 4 4
split_gain=0.829517 0.592705 1.50198 0.711948
threshold=0.077500000000000013 0.36925000000000002 0.55200000000000016 0.40025000000000005
decision_type=2 2 2 2
left_child=-1 3 -3 -2
right_child=1 2 -4 -5
leaf_value=-0.0061951642626612057 0.00088939283497931261 0.011494341025545453 0.00015277839501333588 -0.0026896192822582605
leaf_weight=203 1734 161 425 818
leaf_count=203 1734 161 425 818
internal_value=0 0.000400771 0.0032688 -0.000257798
internal_weight=0 3138 586 2552
internal_count=3341 3138 586 2552
is_linear=0
shrinkage=0.1


Tree=31
num_leaves=5
num_cat=0
split_feature=6 4 6 3
split_gain=0.765663 1.3162 1.42792 1.08115
threshold=0.11025000000000001 0.21675000000000003 0.17725000000000002 0.49225000000000008
decision_type=2 2 2 2
left_child=-1 3 -3 -2
right_child=1 2 -4 -5
leaf_value=-0.0029919060521517034 0.0030944045889371823 -0.0073715797579300803 0.00074752412085843075 0.015572806645772961
leaf_weight=681 258 242 2065 95
leaf_count=681 258 242 2065 95
internal_value=0 0.000765973 -0.000104155 0.00645261
internal_weight=0 2660 2307 353
internal_count=3341 2660 2307 353
is_linear=0
shrinkage=0.1


Tree=32
num_leaves=5
num_cat=0
split_feature=0 2 4 4
split_gain=0.722709 0.580392 1.25329 0.637147
threshold=0.18250000000000002 0.15750000000000003 0.40025000000000005 0.31575000000000003
decision_type=2 2 2 2
left_child=-1 3 -3 -2
right_child=1 2 -4 -5
leaf_value=-0.018064912154593254 0.00036200139657061991 0.009787040965017901 0.00054554557399773696 -0.0032759842019794705
leaf_weight=22 1461 173 967 718
leaf_count=22 1461 173 967 718
internal_value=0 0.000119743 0.00194798 -0.000836747
internal_weight=0 3319 1140 2179
internal_count=3341 3319 1140 2179
is_linear=0
shrinkage=0.1


Tree=33
num_leaves=5
num_cat=0
split_feature=2 6 4 4
split_gain=0.622399 0.544441 0.447926 0.419334
threshold=0.057500000000000002 0.54625000000000012 0.89175000000000015 0.58125000000000016
decision_type=2 2 2 2
left_child=-1 3 -3 -2
right_child=1 2 -4 -5
leaf_value=-0.0093989283720409319 0.00048673475203880423 0.013353148716586558 -0.00326586589217186 -0.0026821172251347229
leaf_weight=69 2700 55 23 494
leaf_count=69 2700 55 23 494
internal_value=0 0.000198205 0.00845267 -3.37573e-06
internal_weight=0 3272 78 3194
internal_count=3341 3272 78 3194
is_linear=0
shrinkage=0.1


Tree=34
num_leaves=5
num_cat=0
split_feature=6 4 4 2
split_gain=0.623072 1.21967 0.755383 1.41929
threshold=0.25925000000000004 0.44625000000000009 0.30725000000000008 0.13250000000000003
decision_type=2 2 2 2
left_child=2 -2 3 -1
right_child=1 -3 -4 -5
leaf_value=-0.0015346562172333209 0.006206355820091102 -0.00024275236495889136 -0.0048522205455143247 0.0067651155401006278
leaf_weight=1194 406 1056 436 249
leaf_count=1194 406 1056 436 249
internal_value=0 0.00154818 -0.00120459 -0.000102471
internal_weight=0 1462 1879 1443
internal_count=3341 1462 1879 1443
is_linear=0
shrinkage=0.1


Tree=35
num_leaves=5
num_cat=0
split_feature=6 4 6 0
split_gain=0.555194 1.009 0.499689 0.484914
threshold=0.40925000000000006 0.63050000000000017 0.64450000000000007 0.18750000000000003
decision_type=2 2 2 2
left_child=3 -2 -3 -1
right_child=1 2 -4 -5
leaf_value=-0.014063046514414824 0.0098084545806951598 -0.0020375511301505677 0.014497703956440093 -0.00034585539327605658
leaf_weight=26 155 212 20 2928
leaf_count=26 155 212 20 2928
internal_value=0 0.00356151 -0.000612098 -0.000466589
internal_weight=0 387 232 2954
internal_count=3341 387 232 2954
is_linear=0
shrinkage=0.1


Tree=36
num_leaves=5
num_cat=0
split_feature=6 4 6 4
split_gain=0.495894 1.37334 0.698421 1.06934
threshold=0.13975000000000004 0.21525000000000002 0.23375000000000004 0.40025000000000005
decision_type=2 2 2 2
left_child=-1 -2 -3 -4
right_child=1 2 3 -5
leaf_value=-0.0020171407163289165 0.0091433728071084863 -0.0029182249676360976 0.0056828700530025967 -0.0002842438219404603
leaf_weight=893 180 582 391 1295
leaf_count=893 180 582 391 1295
internal_value=0 0.000735828 6.85624e-05 0.00109959
internal_weight=0 2448 2268 1686
internal_count=3341 2448 2268 1686
is_linear=0
shrinkage=0.1


Tree=37
num_leaves=5
num_cat=0
split_feature=6 4 4 2
split_gain=0.477214 0.707305 0.470508 0.907261
threshold=0.44025000000000009 0.77450000000000008 0.58125000000000016 0.18750000000000003
decision_type=2 2 2 2
left_child=2 -2 3 -1
right_child=1 -3 -4 -5
leaf_value=-0.00022139898046548038 0.0078763879575521681 -0.0026884197490289808 -0.003841329891394369 0.01100475097506156
leaf_weight=2650 173 100 344 74
leaf_count=2650 173 100 344 74
internal_value=0 0.0040065 -0.00035651 8.35699e-05
internal_weight=0 273 3068 2724
internal_count=3341 273 3068 2724
is_linear=0
shrinkage=0.1


Tree=38
num_leaves=5
num_cat=0
split_feature=5 2 5 4
split_gain=0.427806 0.402404 0.461897 0.250045
threshold=0.0072500000000000004 0.21250000000000002 0.43625000000000008 0.80075000000000007
decision_type=2 2 2 2
left_child=-1 3 -3 -2
right_child=1 2 -4 -5
leaf_value=-0.012092929312573939 8.7239409442138135e-05 0.012672561807010105 -0.004662979339164766 -0.0053171770297922201
leaf_weight=29 3151 51 22 88
leaf_count=29 3151 51 22 88
internal_value=0 0.000105886 0.00744815 -5.95925e-05
internal_weight=0 3312 73 3239
internal_count=3341 3312 73 3239
is_linear=0
shrinkage=0.1


Tree=39
num_leaves=5
num_cat=0
split_feature=6 4 6 4
split_gain=0.418837 0.949136 0.45205 0.399442
threshold=0.35975000000000007 0.53525000000000011 0.65775000000000017 0.35875000000000007
decision_type=2 2 2 2
left_child=3 -2 -3 -1
right_child=1 2 -4 -5
leaf_value=0.00035643969494516831 0.0087838064080304999 -0.00065829497829738019 0.014708482045680286 -0.0021845109155739155
leaf_weight=1750 167 447 20 957
leaf_count=1750 167 447 20 957
internal_value=0 0.00231358 -1.88896e-07 -0.000541857
internal_weight=0 634 467 2707
internal_count=3341 634 467 2707
is_linear=0
shrinkage=0.1


Tree=40
num_leaves=5
num_cat=0
split_feature=1 4 6 6
split_gain=0.406753 0.659585 0.767679 0.744153
threshold=0.27750000000000008 0.12425000000000001 0.094750000000000015 0.099750000000000019
decision_type=2 2 2 2
left_child=-1 3 -3 -2
right_child=1 2 -4 -5
leaf_value=-0.0030351465754360203 0.0034549021627753975 -0.010273579372359174 0.00033156698266666602 0.021681558947810639
leaf_weight=390 112 70 2741 28
leaf_count=390 112 70 2741 28
internal_value=0 0.000401121 6.74758e-05 0.00710023
internal_weight=0 2951 2811 140
internal_count=3341 2951 2811 140
is_linear=0
shrinkage=0.1


Tree=41
num_leaves=5
num_cat=0
split_feature=6 4 4 3
split_gain=0.368798 1.03515 0.666089 0.506281
threshold=0.16725000000000004 0.21525000000000002 0.23325000000000004 0.49575000000000008
decision_type=2 2 2 2
left_child=2 3 -1 -2
right_child=1 -3 -4 -5
leaf_value=-0.00054279272015145448 -0.0012040853140537035 0.0003233921379501045 -0.0078284545423230167 0.016530287140825144
leaf_weight=976 22 2139 144 60
leaf_count=976 22 2139 144 60
internal_value=0 0.000746089 -0.00147952 0.0117723
internal_weight=0 2221 1120 82
internal_count=3341 2221 1120 82
is_linear=0
shrinkage=0.1


Tree=42
num_leaves=5
num_cat=0
split_feature=2 4 6 4
split_gain=0.339946 0.69913 0.416706 0.483136
threshold=0.16750000000000004 0.58125000000000016 0.38950000000000007 0.40825000000000006
decision_type=2 2 2 2
left_child=-1 2 3 -2
right_child=1 -3 -4 -5
leaf_value=-0.00057761525654610453 0.0085738110254802141 -0.0010150048748107144 0.009754706755887764 -0.00031779428335049979
leaf_weight=2516 92 432 119 182
leaf_count=2516 92 432 119 182
internal_value=0 0.00176155 0.00481364 0.00266771
internal_weight=0 825 393 274
internal_count=3341 825 393 274
is_linear=0
shrinkage=0.1


Tree=43
num_leaves=5
num_cat=0
split_feature=0 6 4 4
split_gain=0.332707 0.293191 0.402919 0.40152
threshold=0.18250000000000002 0.45025000000000009 0.76375000000000004 0.53075000000000017
decision_type=2 2 2 2
left_child=-1 3 -3 -2
right_child=1 2 -4 -5
leaf_value=-0.012257027000933621 0.00033597706459906167 0.0067322665941109573 -0.0014476634123746087 -0.0026900164676250293
leaf_weight=22 2540 147 102 530
leaf_count=22 2540 147 102 530
internal_value=0 8.12457e-05 0.00338145 -0.000186426
internal_weight=0 3319 249 3070
internal_count=3341 3319 249 3070
is_linear=0
shrinkage=0.1


Tree=44
num_leaves=5
num_cat=0
split_feature=6 4 4 3
split_gain=0.315668 0.758208 0.63046 1.1848
threshold=0.25925000000000004 0.44625000000000009 0.27925000000000005 0.61325000000000018
decision_type=2 2 2 2
left_child=2 -2 3 -1
right_child=1 -3 -4 -5
leaf_value=-0.00059405519761648916 0.0047746950794677161 -0.00031009213671220068 -0.0036866031664943844 0.010027901303913931
leaf_weight=1209 406 1056 555 115
leaf_count=1209 406 1056 555 115
internal_value=0 0.00110196 -0.000857408 0.000328547
internal_weight=0 1462 1879 1324
internal_count=3341 1462 1879 1324
is_linear=0
shrinkage=0.1


Tree=45
num_leaves=5
num_cat=0
split_feature=2 2 5 4
split_gain=0.296489 0.258696 0.327019 0.238898
threshold=0.067500000000000018 0.21250000000000002 0.43625000000000008 0.40025000000000005
decision_type=2 2 2 2
left_child=-1 3 -3 -2
right_child=1 2 -4 -5
leaf_value=-0.004989412658564423 0.00077499150724802781 0.010459028658292749 -0.0041274857791987335 -0.00099152611019443795
leaf_weight=115 1844 51 22 1309
leaf_count=115 1844 51 22 1309
internal_value=0 0.000177862 0.00606309 4.16038e-05
internal_weight=0 3226 73 3153
internal_count=3341 3226 73 3153
is_linear=0
shrinkage=0.1


Tree=46
num_leaves=5
num_cat=0
split_feature=6 4 4 2
split_gain=0.29519 0.613944 0.528403 1.03544
threshold=0.28925000000000006 0.48975000000000007 0.30725000000000008 0.13250000000000003
decision_type=2 2 2 2
left_child=2 -2 3 -1
right_child=1 -3 -4 -5
leaf_value=-0.00092644050052573831 0.0047272078462602578 -0.00022900717611062444 -0.0030235084795657758 0.0057978935115197312
leaf_weight=1200 358 828 672 283
leaf_count=1200 358 828 672 283
internal_value=0 0.00126705 -0.000697319 0.00035676
internal_weight=0 1186 2155 1483
internal_count=3341 1186 2155 1483
is_linear=0
shrinkage=0.1


Tree=47
num_leaves=5
num_cat=0
split_feature=5 4 4 2
split_gain=0.264071 1.3125 0.840994 0.840993
threshold=0.13125000000000003 0.24375000000000002 0.21525000000000002 0.12250000000000001
decision_type=2 2 2 2
left_child=2 -2 3 -1
right_child=1 -3 -4 -5
leaf_value=-0.00094919266712285171 0.012560884170024917 0.00015384011219472522 -0.0063698659879117912 0.0079918349668150774
leaf_weight=853 89 2031 248 120
leaf_count=853 89 2031 248 120
internal_value=0 0.000674702 -0.00117147 0.000153503
internal_weight=0 2120 1221 973
internal_count=3341 2120 1221 973
is_linear=0
shrinkage=0.1


Tree=48
num_leaves=5
num_cat=0
split_feature=6 2 4 4
split_gain=0.252105 0.232054 0.222951 0.1929
threshold=0.54625000000000012 0.042500000000000003 0.76375000000000004 0.71450000000000014
decision_type=2 2 2 2
left_child=1 -1 -2 -3
right_child=2 3 -4 -5
leaf_value=-0.0088887444728364545 0.010697281131202855 0.00012606429374958006 -9.5178650037662406e-06 -0.0033838747134149979
leaf_weight=30 41 3068 37 165
leaf_count=30 41 3068 37 165
internal_value=0 -0.000134305 0.00561841 -5.30696e-05
internal_weight=0 3263 78 3233
internal_count=3341 3263 78 3233
is_linear=0
shrinkage=0.1


Tree=49
num_leaves=5
num_cat=0
split_feature=6 4 4 3
split_gain=0.251962 0.508761 0.418541 0.683248
threshold=0.32475000000000004 0.55200000000000016 0.40025000000000005 0.93925000000000014
decision_type=2 2 2 2
left_child=2 -2 3 -1
right_child=1 -3 -4 -5
leaf_value=-0.00011310707876587711 0.0044464947390825604 -0.00048037717055201477 -0.0029079964882240891 0.011971534916786672
leaf_weight=1849 345 534 565 48
leaf_count=1849 345 534 565 48
internal_value=0 0.00145338 -0.000518895 0.000192672
internal_weight=0 879 2462 1897
internal_count=3341 879 2462 1897
is_linear=0
shrinkage=0.1


Tree=50
num_leaves=5
num_cat=0
split_feature=6 4 4 3
split_gain=0.231725 0.422946 0.25997 0.958259
threshold=0.38950000000000007 0.77450000000000008 0.40025000000000005 0.93925000000000014
decision_type=2 2 2 2
left_child=2 -2 3 -1
right_child=1 -3 -4 -5
leaf_value=-0.00016414493950092331 0.0038011921296652222 -0.0028632522865126913 -0.0017454631131229175 0.010754234252020807
leaf_weight=1867 356 130 904 84
leaf_count=1867 356 130 904 84
internal_value=0 0.00201852 -0.000343608 0.000305944
internal_weight=0 486 2855 1951
internal_count=3341 486 2855 1951
is_linear=0
shrinkage=0.1


Tree=51
num_leaves=5
num_cat=0
split_feature=6 4 4 5
split_gain=0.210893 0.906044 0.581537 0.699108
threshold=0.19425000000000001 0.25425000000000003 0.21675000000000003 0.16025000000000003
decision_type=2 2 2 2
left_child=2 -2 -1 -4
right_child=1 -3 3 -5
leaf_value=0.00029433454635659798 0.010184010130010154 0.00017655061317448694 -0.0063402283033079446 0.0054746304374809068
leaf_weight=986 95 1897 303 60
leaf_count=986 95 1897 303 60
internal_value=0 0.000653814 -0.000965454 -0.00438736
internal_weight=0 1992 1349 363
internal_count=3341 1992 1349 363
is_linear=0
shrinkage=0.1


Tree=52
num_leaves=5
num_cat=0
split_feature=1 4 6 6
split_gain=0.214578 0.582251 0.640615 0.585386
threshold=0.27750000000000008 0.12425000000000001 0.082250000000000004 0.094750000000000015
decision_type=2 2 2 2
left_child=-1 2 -2 -3
right_child=1 3 -4 -5
leaf_value=-0.0022044845188681325 -0.00027632938454980434 -0.0090523134118744315 0.013254017805234648 0.00020847955196615092
leaf_weight=390 69 70 71 2741
leaf_count=390 69 70 71 2741
internal_value=0 0.000291342 0.00658549 -2.21343e-05
internal_weight=0 2951 140 2811
internal_count=3341 2951 140 2811
is_linear=0
shrinkage=0.1


Tree=53
num_leaves=5
num_cat=0
split_feature=6 5 4 3
split_gain=0.206273 0.193675 0.165434 0.614035
threshold=0.65775000000000017 0.0072500000000000004 0.69700000000000017 1.5682500000000001
decision_type=2 2 2 2
left_child=1 -1 3 -3
right_child=-2 2 -4 -5
leaf_value=-0.0082018102744016146 0.0094375155218269519 -9.3586225820546773e-06 -0.0026555783847996266 0.0099659746638425303
leaf_weight=29 23 3008 218 63
leaf_count=29 23 3008 218 63
internal_value=0 -6.54198e-05 6.32094e-06 0.00019528
internal_weight=0 3318 3289 3071
internal_count=3341 3318 3289 3071
is_linear=0
shrinkage=0.1


Tree=54
num_leaves=5
num_cat=0
split_feature=2 5 0 4
split_gain=0.189583 0.223454 0.164207 0.152639
threshold=0.21250000000000002 0.43625000000000008 0.18250000000000002 0.35875000000000007
decision_type=2 2 2 2
left_child=2 -2 -1 -4
right_child=1 -3 3 -5
leaf_value=-0.0087228812023319984 0.0086738998844178728 -0.0033836538734083829 0.00058413118698654018 -0.00079086220661158464
leaf_weight=22 51 22 1739 1507
leaf_count=22 51 22 1739 1507
internal_value=0 0.00504012 -0.000112585 -5.42283e-05
internal_weight=0 73 3268 3246
internal_count=3341 73 3268 3246
is_linear=0
shrinkage=0.1


Tree=55
num_leaves=5
num_cat=0
split_feature=2 4 3 4
split_gain=0.192303 0.380872 0.279308 0.361746
threshold=0.16750000000000004 0.58125000000000016 1.4862500000000003 0.34525
decision_type=2 2 2 2
left_child=2 -2 3 -1
right_child=1 -3 -4 -5
leaf_value=0.00032254166280814087 0.0035776251484758432 -0.00072445615062153798 0.0098765286939361922 -0.0022223283574703064
leaf_weight=1644 393 432 26 846
leaf_count=1644 393 432 26 846
internal_value=0 0.0013249 -0.000434436 -0.000542101
internal_weight=0 825 2516 2490
internal_count=3341 825 2516 2490
is_linear=0
shrinkage=0.1


Tree=56
num_leaves=5
num_cat=0
split_feature=6 4 4 6
split_gain=0.196722 0.727933 0.555932 0.55076
threshold=0.13975000000000004 0.21525000000000002 0.16225000000000003 0.11025000000000001
decision_type=2 2 2 2
left_child=2 -2 3 -1
right_child=1 -3 -4 -5
leaf_value=-0.00071293213399896546 0.0065844950179517678 -2.2341303716735411e-05 -0.0055191329992518613 0.0093325575107398133
leaf_weight=604 180 2268 229 60
leaf_count=604 180 2268 229 60
internal_value=0 0.000463455 -0.00127048 0.000194793
internal_weight=0 2448 893 664
internal_count=3341 2448 893 664
is_linear=0
shrinkage=0.1


Tree=57
num_leaves=5
num_cat=0
split_feature=5 4 4 2
split_gain=0.19172 0.974844 0.535153 0.385955
threshold=0.13575000000000004 0.24375000000000002 0.23125000000000004 0.12250000000000001
decision_type=2 2 2 2
left_child=2 -2 3 -1
right_child=1 -3 -4 -5
leaf_value=-0.00082375215894372837 0.011943122113046989 0.00017815538692266274 -0.0053679615197565296 0.0045426690337967276
leaf_weight=883 73 2000 227 158
leaf_count=883 73 2000 227 158
internal_value=0 0.000592455 -0.000968579 -9.25211e-06
internal_weight=0 2073 1268 1041
internal_count=3341 2073 1268 1041
is_linear=0
shrinkage=0.1


Tree=58
num_leaves=5
num_cat=0
split_feature=6 4 3 0
split_gain=0.176798 0.586575 0.534249 0.453593
threshold=0.23375000000000004 0.35275000000000006 0.76575000000000004 0.50750000000000017
decision_type=2 2 2 2
left_child=3 2 -2 -1
right_child=1 -3 -4 -5
leaf_value=0.00016699727064078702 -0.0020601777041810094 -3.122906866778612e-05 0.0084001434445492695 -0.0037841684822010405
leaf_weight=1267 69 1461 167 377
leaf_count=1267 69 1461 167 377
internal_value=0 0.000715996 0.00534183 -0.000739079
internal_weight=0 1697 236 1644
internal_count=3341 1697 236 1644
is_linear=0
shrinkage=0.1


Tree=59
num_leaves=5
num_cat=0
split_feature=6 4 3 2
split_gain=0.169999 0.224512 0.431172 0.300138
threshold=0.44025000000000009 0.59375000000000011 1.3947500000000004 0.18750000000000003
decision_type=2 2 2 2
left_child=1 2 3 -1
right_child=-2 -3 -4 -5
leaf_value=-0.00022405020611013693 0.0023912867507833355 -0.002792218430473488 0.013144133444875479 0.0061903937614212435
leaf_weight=2664 273 304 25 75
leaf_count=2664 273 304 25 75
internal_value=0 -0.000212784 7.09165e-05 -4.84083e-05
internal_weight=0 3068 2764 2739
internal_count=3341 3068 2764 2739
is_linear=0
shrinkage=0.1


Tree=60
num_leaves=5
num_cat=0
split_feature=6 4 4 2
split_gain=0.146165 0.627404 0.571129 0.382947
threshold=0.11925000000000001 0.18825000000000003 0.15625000000000003 0.10750000000000001
decision_type=2 2 2 2
left_child=2 -2 3 -1
right_child=1 -3 -4 -5
leaf_value=-0.00082866027771481593 0.0065864683807472166 -3.4434331745466997e-05 -0.0072865955611012244 0.0072925745351956443
leaf_weight=544 152 2451 129 65
leaf_count=544 152 2451 129 65
internal_value=0 0.000352188 -0.0012422 3.81382e-05
internal_weight=0 2603 738 609
internal_count=3341 2603 738 609
is_linear=0
shrinkage=0.1


Tree=61
num_leaves=5
num_cat=0
split_feature=5 4 4 3
split_gain=0.147926 0.788028 0.473093 0.443799
threshold=0.13125000000000003 0.24375000000000002 0.21525000000000002 0.4875000000000001
decision_type=2 2 2 2
left_child=2 -2 3 -1
right_child=1 -3 -4 -5
leaf_value=-0.00042563017359139964 0.0097150454839189243 0.0001013867742562431 -0.0047757227930443121 0.0085228751662139914
leaf_weight=914 89 2031 248 59
leaf_count=914 89 2031 248 59
internal_value=0 0.000504979 -0.000876786 0.000116982
internal_weight=0 2120 1221 973
internal_count=3341 2120 1221 973
is_linear=0
shrinkage=0.1


Tree=62
num_leaves=5
num_cat=0
split_feature=6 4 3 6
split_gain=0.145208 0.130492 0.443793 0.1688
threshold=0.65775000000000017 0.75050000000000006 1.7142500000000001 0.40475000000000011
decision_type=2 2 2 2
left_child=1 2 3 -1
right_child=-2 -3 -4 -5
leaf_value=-0.00025269409469316393 0.0079182891944504299 -0.0029675710474324673 0.011278285500094562 0.0025448206039205548
leaf_weight=2903 23 147 35 233
leaf_count=2903 23 147 35 233
internal_value=0 -5.48887e-05 8.01363e-05 -4.4843e-05
internal_weight=0 3318 3171 3136
internal_count=3341 3318 3171 3136
is_linear=0
shrinkage=0.1


Tree=63
num_leaves=5
num_cat=0
split_feature=2 2 5 4
split_gain=0.132137 0.116501 0.160008 0.133451
threshold=0.057500000000000002 0.21250000000000002 0.43625000000000008 0.35875000000000007
decision_type=2 2 2 2
left_child=-1 3 -3 -2
right_child=1 2 -4 -5
leaf_value=-0.004330682429734725 0.00061035646152646445 0.0071163286911506279 -0.003086863468739797 -0.00068362430574345049
leaf_weight=69 1693 51 22 1506
leaf_count=69 1693 51 22 1506
internal_value=0 9.13255e-05 0.00404139 1.1864e-06
internal_weight=0 3272 73 3199
internal_count=3341 3272 73 3199
is_linear=0
shrinkage=0.1


Tree=64
num_leaves=5
num_cat=0
split_feature=6 1 6 4
split_gain=0.134138 0.422242 0.88637 0.532488
threshold=0.27975000000000011 0.42750000000000005 0.20375000000000001 0.40025000000000005
decision_type=2 2 2 2
left_child=1 2 -1 -4
right_child=-2 -3 3 -5
leaf_value=-0.00074165233693692311 0.00080607049886768966 -0.0033029076640555387 0.0075735623924227807 -0.0064539049797120596
leaf_weight=1395 1276 426 213 31
leaf_count=1395 1276 426 213 31
internal_value=0 -0.000498085 0.000230929 0.00579138
internal_weight=0 2065 1639 244
internal_count=3341 2065 1639 244
is_linear=0
shrinkage=0.1


Tree=65
num_leaves=5
num_cat=0
split_feature=6 1 1 0
split_gain=0.114606 0.445193 0.840079 0.366732
threshold=0.23375000000000004 0.42750000000000005 0.39750000000000008 0.50750000000000017
decision_type=2 2 2 2
left_child=3 2 -2 -1
right_child=1 -3 -4 -5
leaf_value=0.00021966324421220101 -0.0081048973191880369 3.7807328791793907e-05 0.0091148300432509054 -0.0033331006428162602
leaf_weight=1267 36 1528 133 377
leaf_count=1267 36 1528 133 377
internal_value=0 0.000576468 0.00544672 -0.000595052
internal_weight=0 1697 169 1644
internal_count=3341 1697 169 1644
is_linear=0
shrinkage=0.1


Tree=66
num_leaves=5
num_cat=0
split_feature=0 4 6 4
split_gain=0.113401 0.106435 0.212447 0.160028
threshold=0.18750000000000003 1.0650000000000002 0.49550000000000005 0.53075000000000017
decision_type=2 2 2 2
left_child=-1 2 3 -2
right_child=1 -3 -4 -5
leaf_value=-0.0065784692352351092 0.00029354083966857465 -0.006321436919433137 0.0041968252631973046 -0.0015023341148722976
leaf_weight=26 2551 26 122 616
leaf_count=26 2551 26 122 616
internal_value=0 5.15958e-05 0.000101976 -5.57673e-05
internal_weight=0 3315 3289 3167
internal_count=3341 3315 3289 3167
is_linear=0
shrinkage=0.1


Tree=67
num_leaves=5
num_cat=0
split_feature=5 4 4 3
split_gain=0.116263 0.610735 0.356822 0.522884
threshold=0.13575000000000004 0.24375000000000002 0.18825000000000003 0.42725000000000007
decision_type=2 2 2 2
left_child=2 -2 3 -1
right_child=1 -3 -4 -5
leaf_value=-0.00029731200084675505 0.0094455820653421736 0.0001334379982612802 -0.0030837774127114169 0.0087914947335999746
leaf_weight=766 73 2000 433 69
leaf_count=766 73 2000 433 69
internal_value=0 0.000461362 -0.000754261 0.000453739
internal_weight=0 2073 1268 835
internal_count=3341 2073 1268 835
is_linear=0
shrinkage=0.1


Tree=68
num_leaves=5
num_cat=0
split_feature=1 0 4 2
split_gain=0.106179 0.465064 0.463557 0.500942
threshold=0.27750000000000008 0.36250000000000004 0.12425000000000001 0.092500000000000013
decision_type=2 2 2 2
left_child=1 -1 3 -2
right_child=2 -3 -4 -5
leaf_value=-0.00030356306340157367 -0.0023307594451673175 -0.01111224887892604 -7.4764290179071477e-05 0.01021044094545337
leaf_weight=345 49 45 2811 91
leaf_count=345 49 45 2811 91
internal_value=0 -0.00155072 0.000204941 0.00582102
internal_weight=0 390 2951 140
internal_count=3341 390 2951 140
is_linear=0
shrinkage=0.1


Tree=69
num_leaves=5
num_cat=0
split_feature=2 4 3 5
split_gain=0.106997 0.352723 0.401505 0.290744
threshold=0.15750000000000003 0.48975000000000007 1.1687500000000004 0.16925000000000004
decision_type=2 2 2 2
left_child=-1 2 3 -2
right_child=1 -3 -4 -5
leaf_value=-0.00040727629912899337 0.0080364911636758244 -0.00043787979661071106 0.010957796526430495 0.00039242922966155997
leaf_weight=2201 62 768 58 252
leaf_count=2201 62 768 58 252
internal_value=0 0.000786329 0.00331373 0.00190177
internal_weight=0 1140 372 314
internal_count=3341 1140 372 314
is_linear=0
shrinkage=0.1


Tree=70
num_leaves=5
num_cat=0
split_feature=1 4 6 0
split_gain=0.100566 0.328255 0.248469 0.19617
threshold=0.53250000000000008 0.76375000000000004 0.55750000000000011 0.70250000000000001
decision_type=2 2 2 2
left_child=-1 2 3 -2
right_child=1 -3 -4 -5
leaf_value=-0.00015297344737336973 0.0059368076769611509 -0.0018316902612280262 0.015466286144441083 -0.004386431848009428
leaf_weight=3100 79 117 21 24
leaf_count=3100 79 117 21 24
internal_value=0 0.00196771 0.00555262 0.00353139
internal_weight=0 241 124 103
internal_count=3341 241 124 103
is_linear=0
shrinkage=0.1


Tree=71
num_leaves=5
num_cat=0
split_feature=0 4 1 4
split_gain=0.0962668 0.347468 0.257758 0.476718
threshold=0.28750000000000003 0.05075000000000001 0.23750000000000002 0.071250000000000008
decision_type=2 2 2 2
left_child=-1 -2 -3 -4
right_child=1 2 3 -5
leaf_value=-0.0025667215547790483 0.01235920228873906 -0.0070283082496447897 0.011422178139784248 3.5283249931170346e-06
leaf_weight=140 23 51 37 3090
leaf_count=140 23 51 37 3090
internal_value=0 0.000112259 2.36247e-05 0.000138639
internal_weight=0 3201 3178 3127
internal_count=3341 3201 3178 3127
is_linear=0
shrinkage=0.1


Tree=72
num_leaves=5
num_cat=0
split_feature=6 0 0 4
split_gain=0.0900888 0.386948 0.573934 0.28361
threshold=0.25925000000000004 0.51250000000000007 0.57250000000000012 0.48025000000000001
decision_type=2 2 2 2
left_child=-1 -2 3 -3
right_child=1 2 -4 -5
leaf_value=-0.0004580443527679396 -0.013225332819856703 0.0072313542725338312 -1.0971238271013368e-05 -0.0043729502242058514
leaf_weight=1879 20 172 1246 24
leaf_count=1879 20 172 1246 24
internal_value=0 0.00058869 0.000780286 0.00581042
internal_weight=0 1462 1442 196
internal_count=3341 1462 1442 196
is_linear=0
shrinkage=0.1


Tree=73
num_leaves=5
num_cat=0
split_feature=6 4 3 1
split_gain=0.0890969 0.106841 0.363295 0.196727
threshold=0.65775000000000017 0.69700000000000017 1.5682500000000001 0.54250000000000009
decision_type=2 2 2 2
left_child=1 2 3 -1
right_child=-2 -3 -4 -5
leaf_value=-0.00012322350595684727 0.0062025094161862922 -0.002182840760540935 0.0076237351021965945 0.0086127794061142664
leaf_weight=3011 23 218 63 26
leaf_count=3011 23 218 63 26
internal_value=0 -4.29951e-05 0.000107484 -4.84339e-05
internal_weight=0 3318 3100 3037
internal_count=3341 3318 3100 3037
is_linear=0
shrinkage=0.1


Tree=74
num_leaves=5
num_cat=0
split_feature=1 4 3 0
split_gain=0.0812009 0.0760466 0.162704 0.0934691
threshold=0.13250000000000003 1.0650000000000002 2.0710000000000002 0.71250000000000002
decision_type=2 2 2 2
left_child=-1 2 3 -2
right_child=1 -3 -4 -5
leaf_value=-0.0059212912157501872 8.6385727882483745e-05 -0.0053459293168718718 0.0078144737571063973 -0.0042707414584001527
leaf_weight=23 3215 26 27 50
leaf_count=23 3215 26 27 50
internal_value=0 4.10457e-05 8.35917e-05 1.9661e-05
internal_weight=0 3318 3292 3265
internal_count=3341 3318 3292 3265
is_linear=0
shrinkage=0.1


Tree=75
num_leaves=5
num_cat=0
split_feature=2 5 6 4
split_gain=0.0761642 0.109653 0.0998128 0.0923498
threshold=0.21250000000000002 0.43625000000000008 0.46625000000000011 0.53075000000000017
decision_type=2 2 2 2
left_child=3 2 -2 -1
right_child=1 -3 -4 -5
leaf_value=0.00020264601251348947 0.0010478286538273096 -0.0027063543225680901 0.0099110310160473031 -0.0011026791938307861
leaf_weight=2582 24 22 27 686
leaf_count=2582 24 22 27 686
internal_value=0 0.0031946 0.00574011 -7.13604e-05
internal_weight=0 73 51 3268
internal_count=3341 73 51 3268
is_linear=0
shrinkage=0.1


Tree=76
num_leaves=5
num_cat=0
split_feature=6 1 6 4
split_gain=0.0825221 0.346916 0.641464 0.394875
threshold=0.27975000000000011 0.42750000000000005 0.20375000000000001 0.40025000000000005
decision_type=2 2 2 2
left_child=1 2 -1 -4
right_child=-2 -3 3 -5
leaf_value=-0.00055725443952401438 0.0006322393559366617 -0.0029330323718760403 0.0065351359478651354 -0.0055445047996697892
leaf_weight=1395 1276 426 213 31
leaf_count=1395 1276 426 213 31
internal_value=0 -0.000390672 0.000270125 0.00500043
internal_weight=0 2065 1639 244
internal_count=3341 2065 1639 244
is_linear=0
shrinkage=0.1


Tree=77
num_leaves=5
num_cat=0
split_feature=1 0 4 3
split_gain=0.0713562 0.245847 0.143839 0.425
threshold=0.53250000000000008 0.68250000000000022 0.5667500000000002 1.2077500000000001
decision_type=2 2 2 2
left_child=2 -2 3 -1
right_child=1 -3 -4 -5
leaf_value=-0.00019367558985143574 0.0068582961169533635 -0.00030396167676164103 -0.001937747114283553 0.004999227008582758
leaf_weight=2547 66 175 385 168
leaf_count=2547 66 175 385 168
internal_value=0 0.00165749 -0.000128856 0.000127653
internal_weight=0 241 3100 2715
internal_count=3341 241 3100 2715
is_linear=0
shrinkage=0.1


Tree=78
num_leaves=5
num_cat=0
split_feature=5 4 1 1
split_gain=0.0684947 0.0752635 0.565645 0.401573
threshold=0.0072500000000000004 0.078750000000000014 0.25250000000000006 0.27750000000000008
decision_type=2 2 2 2
left_child=-1 2 -2 -3
right_child=1 3 -4 -5
leaf_value=-0.0048387874335307501 -0.00046956903818085716 -0.0059719664942739269 0.012005204508419742 0.00012863792834961443
leaf_weight=29 209 112 44 2947
leaf_count=29 209 112 44 2947
internal_value=0 4.23686e-05 0.00169996 -9.47252e-05
internal_weight=0 3312 253 3059
internal_count=3341 3312 253 3059
is_linear=0
shrinkage=0.1


Tree=79
num_leaves=5
num_cat=0
split_feature=4 5 2 4
split_gain=0.061304 0.134542 0.0770758 0.10813
threshold=1.0650000000000002 0.44975000000000004 0.21250000000000002 0.53075000000000017
decision_type=2 2 2 2
left_child=1 2 3 -1
right_child=-2 -3 -4 -5
leaf_value=0.00019450748723574159 -0.0048368334913483036 0.0058024438004940747 0.0037868125198516423 -0.0012565876171419649
leaf_weight=2582 26 40 52 641
leaf_count=2582 26 40 52 641
internal_value=0 3.79359e-05 -3.24703e-05 -9.40907e-05
internal_weight=0 3315 3275 3223
internal_count=3341 3315 3275 3223
is_linear=0
shrinkage=0.1


Tree=80
num_leaves=5
num_cat=0
split_feature=3 4 5 4
split_gain=0.0648863 0.760206 0.515322 0.393045
threshold=0.93925000000000014 0.40825000000000006 0.21525000000000002 0.37525000000000003
decision_type=2 2 2 2
left_child=-1 2 3 -2
right_child=1 -3 -4 -5
leaf_value=-0.00036378836053131583 0.0081016137224176662 -0.00017768778774854331 0.0030696646907017568 0.02726958722341806
leaf_weight=1987 23 1242 69 20
leaf_count=1987 23 1242 69 20
internal_value=0 0.000533861 0.00842443 0.017017
internal_weight=0 1354 112 43
internal_count=3341 1354 112 43
is_linear=0
shrinkage=0.1


Tree=81
num_leaves=5
num_cat=0
split_feature=3 4 3 5
split_gain=0.0600142 0.317735 0.517916 0.41508
threshold=1.1502500000000002 0.44375000000000003 0.99025000000000019 0.20925000000000002
decision_type=2 2 2 2
left_child=1 2 -1 -4
right_child=-2 -3 3 -5
leaf_value=-0.00019266058592018673 0.00071427528125544396 -0.003218126050270503 0.016766934289286533 0.0031655257157039611
leaf_weight=2037 870 315 30 89
leaf_count=2037 870 315 30 89
internal_value=0 -0.000251485 0.000181953 0.00659445
internal_weight=0 2471 2156 119
internal_count=3341 2471 2156 119
is_linear=0
shrinkage=0.1


Tree=82
num_leaves=5
num_cat=0
split_feature=4 3 5 4
split_gain=0.062661 0.528878 0.472488 0.249507
threshold=0.21525000000000002 0.4875000000000001 0.12025000000000001 0.28175
decision_type=2 2 2 2
left_child=1 -1 -2 -4
right_child=2 -3 3 -5
leaf_value=-6.736581697961432e-05 -0.0054770193331263551 0.0078866804897742161 0.0031971904187355301 -0.00026631893482898059
leaf_weight=915 163 92 233 1938
leaf_count=915 163 92 233 1938
internal_value=0 0.00065932 -0.000284462 0.000105398
internal_weight=0 1007 2334 2171
internal_count=3341 1007 2334 2171
is_linear=0
shrinkage=0.1


Tree=83
num_leaves=5
num_cat=0
split_feature=4 2 6 6
split_gain=0.0587317 0.51046 0.374054 0.283974
threshold=0.16525000000000004 0.11250000000000002 0.15475000000000003 0.10475000000000001
decision_type=2 2 2 2
left_child=1 -1 -2 -3
right_child=2 3 -4 -5
leaf_value=-0.00020396667033533962 -0.0034112958836236169 -0.00023512503389140659 0.00022739850874763258 0.011816880819387735
leaf_weight=626 322 29 2304 60
leaf_count=626 322 29 2304 60
internal_value=0 0.000803512 -0.000218778 0.00788982
internal_weight=0 715 2626 89
internal_count=3341 715 2626 89
is_linear=0
shrinkage=0.1


Tree=84
num_leaves=5
num_cat=0
split_feature=2 4 6 6
split_gain=0.0564441 0.0881292 0.49369 0.419365
threshold=0.042500000000000003 0.12175000000000001 0.083750000000000019 0.094750000000000015
decision_type=2 2 2 2
left_child=-1 2 -2 -3
right_child=1 3 -4 -5
leaf_value=-0.0043180743106252832 -1.8012157472019846e-05 -0.0069673381306612023 0.0091869581412003538 4.5591627125761909e-05
leaf_weight=30 407 88 68 2748
leaf_count=30 407 88 68 2748
internal_value=0 3.91248e-05 0.00129975 -0.000172017
internal_weight=0 3311 475 2836
internal_count=3341 3311 475 2836
is_linear=0
shrinkage=0.1


Tree=85
num_leaves=5
num_cat=0
split_feature=4 3 4 3
split_gain=0.0569133 0.724217 0.360457 0.343862
threshold=0.35875000000000007 0.79025000000000012 0.30725000000000008 0.99600000000000011
decision_type=2 2 2 2
left_child=1 2 -1 -2
right_child=3 -3 -4 -5
leaf_value=0.00017105284209051395 -0.003108272691798598 0.0065546668475753691 -0.0053431314912574124 0.00037960562628920543
leaf_weight=1463 369 172 129 1208
leaf_count=1463 369 172 129 1208
internal_value=0 0.000390243 -0.000275762 -0.000436518
internal_weight=0 1764 1592 1577
internal_count=3341 1764 1592 1577
is_linear=0
shrinkage=0.1


Tree=86
num_leaves=5
num_cat=0
split_feature=6 0 1 1
split_gain=0.0528065 0.0853385 0.19568 0.170128
threshold=0.65775000000000017 0.70250000000000001 0.58250000000000013 0.5375000000000002
decision_type=2 2 2 2
left_child=1 3 -3 -1
right_child=-2 2 -4 -5
leaf_value=-6.589981062442433e-05 0.0047750719903927787 -0.0046637804838590901 0.0062394604721339418 0.0042083152772950903
leaf_weight=3109 23 93 20 96
leaf_count=3109 23 93 20 96
internal_value=0 -3.31002e-05 -0.002734 6.21266e-05
internal_weight=0 3318 113 3205
internal_count=3341 3318 113 3205
is_linear=0
shrinkage=0.1


Tree=87
num_leaves=5
num_cat=0
split_feature=4 3 4 4
split_gain=0.0538591 0.109329 0.211855 0.132306
threshold=1.0650000000000002 1.7142500000000001 0.70750000000000013 0.59375000000000011
decision_type=2 2 2 2
left_child=1 3 -3 -1
right_child=-2 2 -4 -5
leaf_value=0.00014331136953064078 -0.0045336350691146578 0.010738822252110199 0.00085325090497711002 -0.0019177596868456541
leaf_weight=2828 26 27 110 350
leaf_count=2828 26 27 110 350
internal_value=0 3.55579e-05 0.0028015 -8.36788e-05
internal_weight=0 3315 137 3178
internal_count=3341 3315 137 3178
is_linear=0
shrinkage=0.1


Tree=88
num_leaves=5
num_cat=0
split_feature=6 4 6 1
split_gain=0.0520657 0.364946 0.323789 0.30769
threshold=0.067750000000000019 0.12425000000000001 0.094750000000000015 0.26250000000000007
decision_type=2 2 2 2
left_child=3 -2 -3 -1
right_child=1 2 -4 -5
leaf_value=0.00023977002316424658 0.0045381949831715838 -0.0065814754803125795 3.5426323892383707e-05 -0.0075433707503590646
leaf_weight=281 177 76 2745 62
leaf_count=281 177 76 2745 62
internal_value=0 0.000133527 -0.000142838 -0.0011671
internal_weight=0 2998 2821 343
internal_count=3341 2998 2821 343
is_linear=0
shrinkage=0.1


Tree=89
num_leaves=5
num_cat=0
split_feature=2 4 6 6
split_gain=0.0520389 0.271436 0.311361 0.266321
threshold=0.077500000000000013 0.078750000000000014 0.045250000000000005 0.077750000000000014
decision_type=2 2 2 2
left_child=-1 2 -2 -3
right_child=1 3 -4 -5
leaf_value=-0.0015516881227695149 -0.0016013212424392503 -0.0043742918847451658 0.0099537250995314838 0.00013753656263115798
leaf_weight=203 39 137 58 2904
leaf_count=203 39 137 58 2904
internal_value=0 0.00010038 0.00530788 -6.57257e-05
internal_weight=0 3138 97 3041
internal_count=3341 3138 97 3041
is_linear=0
shrinkage=0.1


Tree=90
num_leaves=5
num_cat=0
split_feature=4 3 3 2
split_gain=0.0569356 0.410437 0.389838 0.371787
threshold=0.23325000000000004 0.61325000000000018 0.5787500000000001 0.12250000000000001
decision_type=2 2 2 2
left_child=2 -2 -1 -3
right_child=1 3 -4 -5
leaf_value=0.00022370393404549002 -0.0049974645895077387 0.0075432192731218848 0.010280919219367206 -0.00014115270158333127
leaf_weight=1057 171 65 40 2008
leaf_count=1057 171 65 40 2008
internal_value=0 -0.000288633 0.000590421 9.97948e-05
internal_weight=0 2244 1097 2073
internal_count=3341 2244 1097 2073
is_linear=0
shrinkage=0.1


Tree=91
num_leaves=5
num_cat=0
split_feature=4 5 3 4
split_gain=0.0518767 0.493382 0.359271 0.461698
threshold=0.28175 0.18925 0.79025000000000012 0.35875000000000007
decision_type=2 2 2 2
left_child=1 -1 -2 -4
right_child=2 -3 3 -5
leaf_value=0.00024141265068960255 -0.0037029256655146392 0.016063557290472093 0.0055089570488780736 -0.00030175103414760098
leaf_weight=1352 272 20 150 1547
leaf_count=1352 272 20 150 1547
internal_value=0 0.000472056 -0.000328929 0.000211865
internal_weight=0 1372 1969 1697
internal_count=3341 1372 1969 1697
is_linear=0
shrinkage=0.1


Tree=92
num_leaves=5
num_cat=0
split_feature=3 4 4 5
split_gain=0.0497051 0.305362 0.253483 0.182348
threshold=1.1502500000000002 0.50575000000000003 0.52275000000000016 0.26725000000000004
decision_type=2 2 2 2
left_child=2 -2 -1 -3
right_child=1 3 -4 -5
leaf_value=-5.5930023991201429e-05 0.0055490351398475475 0.0031645218838452244 -0.0061606497221094163 -0.00081000243047760982
leaf_weight=2401 111 142 70 617
leaf_count=2401 111 142 70 617
internal_value=0 0.000650039 -0.000228868 -6.64155e-05
internal_weight=0 870 2471 759
internal_count=3341 870 2471 759
is_linear=0
shrinkage=0.1


Tree=93
num_leaves=5
num_cat=0
split_feature=1 0 4 5
split_gain=0.0500893 0.158979 0.15318 0.161029
threshold=0.51250000000000007 0.64750000000000008 0.61050000000000015 0.35975000000000007
decision_type=2 2 2 2
left_child=1 -1 3 -2
right_child=2 -3 -4 -5
leaf_value=-1.7877833001480692e-05 0.0054065014417706567 -0.0042648017150605779 -0.00022315018158312137 -0.0039654845329509542
leaf_weight=2808 110 91 310 22
leaf_count=2808 110 91 310 22
internal_value=0 -0.000151189 0.000991624 0.0038445
internal_weight=0 2899 442 132
internal_count=3341 2899 442 132
is_linear=0
shrinkage=0.1


Tree=94
num_leaves=5
num_cat=0
split_feature=5 4 0 1
split_gain=0.0478967 0.106946 0.0705515 0.110918
threshold=0.44975000000000004 1.0095000000000003 0.71250000000000002 0.53250000000000008
decision_type=2 2 2 2
left_child=2 -2 3 -1
right_child=1 -3 -4 -5
leaf_value=-0.00011075202519050348 0.0062599845572692313 -0.0029067545803263782 -0.0035057680291456883 0.0027869124619705281
leaf_weight=3090 35 20 58 138
leaf_count=3090 35 20 58 138
internal_value=0 0.00292662 -4.89849e-05 1.31258e-05
internal_weight=0 55 3286 3228
internal_count=3341 55 3286 3228
is_linear=0
shrinkage=0.1


Tree=95
num_leaves=5
num_cat=0
split_feature=4 3 0 1
split_gain=0.0468979 0.512458 0.350245 0.310673
threshold=0.30725000000000008 0.76000000000000012 0.51250000000000007 0.42750000000000005
decision_type=2 2 2 2
left_child=1 -1 -2 -3
right_child=2 3 -4 -5
leaf_value=9.4235287623531717e-06 -0.0074923434166879761 0.013269740588536175 -7.273213638880423e-05 -0.0013132284273437802
leaf_weight=1440 66 48 1766 21
leaf_count=1440 66 48 1766 21
internal_value=0 0.000412816 -0.000340033 0.00883145
internal_weight=0 1509 1832 69
internal_count=3341 1509 1832 69
is_linear=0
shrinkage=0.1


Tree=96
num_leaves=5
num_cat=0
split_feature=4 3 3 0
split_gain=0.0463162 0.384888 0.315636 0.270516
threshold=0.21525000000000002 0.4875000000000001 0.55575000000000008 0.49250000000000005
decision_type=2 2 2 2
left_child=1 -1 -2 -3
right_child=2 3 -4 -5
leaf_value=-5.3075369609051633e-05 -0.0050722696894808907 0.010227196455861514 3.5556608074110815e-05 -0.0016811532727270214
leaf_weight=915 128 65 2206 27
leaf_count=915 128 65 2206 27
internal_value=0 0.000566845 -0.000244564 0.00673235
internal_weight=0 1007 2334 92
internal_count=3341 1007 2334 92
is_linear=0
shrinkage=0.1


Tree=97
num_leaves=5
num_cat=0
split_feature=4 3 6 4
split_gain=0.0467415 0.622395 0.417382 0.351865
threshold=0.15125000000000002 0.3352500000000001 0.12375000000000001 0.18825000000000003
decision_type=2 2 2 2
left_child=1 -1 -2 -4
right_child=2 -3 3 -5
leaf_value=-0.0001260204666604066 -0.0050232926104775448 0.011720550282310191 0.0057776838143461587 -0.00010778050673536072
leaf_weight=583 167 48 106 2437
leaf_count=583 167 48 106 2437
internal_value=0 0.000775145 -0.000180486 0.000137544
internal_weight=0 631 2710 2543
internal_count=3341 631 2710 2543
is_linear=0
shrinkage=0.1


Tree=98
num_leaves=5
num_cat=0
split_feature=0 4 2 0
split_gain=0.0455301 0.0607571 0.093264 0.0827695
threshold=0.18250000000000002 0.018250000000000006 0.057500000000000002 0.25250000000000006
decision_type=2 2 2 2
left_child=-1 -2 -3 -4
right_child=1 2 3 -5
leaf_value=-0.0045342274010181432 0.005267785548825156 -0.0057516934009202367 -0.0062135347896920788 8.4788612935083766e-05
leaf_weight=22 22 28 21 3248
leaf_count=22 22 28 21 3248
internal_value=0 3.00552e-05 -4.89482e-06 4.43283e-05
internal_weight=0 3319 3297 3269
internal_count=3341 3319 3297 3269
is_linear=0
shrinkage=0.1


Tree=99
num_leaves=5
num_cat=0
split_feature=4 3 6 4
split_gain=0.0426862 0.587301 0.316209 0.292918
threshold=0.14725000000000002 0.3352500000000001 0.12375000000000001 0.16975000000000004
decision_type=2 2 2 2
left_child=1 -1 -2 -4
right_child=2 -3 3 -5
leaf_value=-6.1896244556515343e-05 -0.0042204703919641266 0.012468926417641343 0.0074729269967888888 -3.992185958724766e-05
leaf_weight=576 180 40 53 2492
leaf_count=576 180 40 53 2492
internal_value=0 0.000751794 -0.000169947 0.000116534
internal_weight=0 616 2725 2545
internal_count=3341 616 2725 2545
is_linear=0
shrinkage=0.1


end of trees

feature_importances:
f5=135
f7=116
f3=37
f4=33
f1=28
f2=26
f6=25

parameters:
[boosting: gbdt]
[objective: regression]
[metric: l1,l2]
[tree_learner: serial]
[device_type: cpu]
[linear_tree: 0]
[data: ]
[valid: ]
[num_iterations: 100]
[learning_rate: 0.1]
[num_leaves: 5]
[num_threads: 0]
[deterministic: 0]
[force_col_wise: 0]
[force_row_wise: 0]
[histogram_pool_size: -1]
[max_depth: -1]
[min_data_in_leaf: 20]
[min_sum_hessian_in_leaf: 0.001]
[bagging_fraction: 1]
[pos_bagging_fraction: 1]
[neg_bagging_fraction: 1]
[bagging_freq: 0]
[bagging_seed: 3]
[feature_fraction: 1]
[feature_fraction_bynode: 1]
[feature_fraction_seed: 2]
[extra_trees: 0]
[extra_seed: 6]
[early_stopping_round: 0]
[first_metric_only: 0]
[max_delta_step: 0]
[lambda_l1: 0]
[lambda_l2: 0]
[linear_lambda: 0]
[min_gain_to_split: 0]
[drop_rate: 0.1]
[max_drop: 50]
[skip_drop: 0.5]
[xgboost_dart_mode: 0]
[uniform_drop: 0]
[drop_seed: 4]
[top_rate: 0.2]
[other_rate: 0.1]
[min_data_per_group: 100]
[max_cat_threshold: 32]
[cat_l2: 10]
[cat_smooth: 10]
[max_cat_to_onehot: 4]
[top_k: 20]
[monotone_constraints: ]
[monotone_constraints_method: basic]
[monotone_penalty: 0]
[feature_contri: ]
[forcedsplits_filename: ]
[refit_decay_rate: 0.9]
[cegb_tradeoff: 1]
[cegb_penalty_split: 0]
[cegb_penalty_feature_lazy: ]
[cegb_penalty_feature_coupled: ]
[path_smooth: 0]
[interaction_constraints: ]
[verbosity: 0]
[saved_feature_importance_type: 0]
[max_bin: 255]
[max_bin_by_feature: ]
[min_data_in_bin: 3]
[bin_construct_sample_cnt: 200000]
[data_random_seed: 1]
[is_enable_sparse: 1]
[enable_bundle: 1]
[use_missing: 1]
[zero_as_missing: 0]
[feature_pre_filter: 1]
[pre_partition: 0]
[two_round: 0]
[header: 0]
[label_column: ]
[weight_column: ]
[group_column: ]
[ignore_column: ]
[categorical_feature: 21]
[forcedbins_filename: ]
[objective_seed: 5]
[num_class: 1]
[is_unbalance: 0]
[scale_pos_weight: 1]
[sigmoid: 1]
[boost_from_average: 1]
[reg_sqrt: 0]
[alpha: 0.9]
[fair_c: 1]
[poisson_max_delta_step: 0.7]
[tweedie_variance_power: 1.5]
[lambdarank_truncation_level: 30]
[lambdarank_norm: 1]
[label_gain: ]
[eval_at: ]
[multi_error_top_k: 1]
[auc_mu_weights: ]
[num_machines: 1]
[local_listen_port: 12400]
[time_out: 120]
[machine_list_filename: ]
[machines: ]
[gpu_platform_id: -1]
[gpu_device_id: -1]
[gpu_use_dp: 0]
[num_gpu: 1]

end of parameters

pandas_categorical:[]
